<?xml version="1.0"?>
<opencv_storage>
<stage0>
  <maxWeakCount>5</maxWeakCount>
  <stageThreshold>-1.2100740671157837e+00</stageThreshold>
  <weakClassifiers>
    <_>
      <internalNodes>
        0 -1 63730 -1.9799426198005676e-02</internalNodes>
      <leafValues>
        3.4831461310386658e-01 -8.0535280704498291e-01</leafValues></_>
    <_>
      <internalNodes>
        0 -1 30574 4.9576543271541595e-02</internalNodes>
      <leafValues>
        -4.9566707015037537e-01 7.2725927829742432e-01</leafValues></_>
    <_>
      <internalNodes>
        0 -1 113146 -6.3573077321052551e-02</internalNodes>
      <leafValues>
        -9.8847156763076782e-01 2.5991943478584290e-01</leafValues></_>
    <_>
      <internalNodes>
        0 -1 20241 -4.0868249535560608e-01</internalNodes>
      <leafValues>
        4.3657758831977844e-01 -8.0949634313583374e-01</leafValues></_>
    <_>
      <internalNodes>
        0 -1 77896 1.0737126693129539e-02</internalNodes>
      <leafValues>
        -4.1147786378860474e-01 6.4052259922027588e-01</leafValues></_></weakClassifiers></stage0>
</opencv_storage>
