<?xml version="1.0"?>
<opencv_storage>
<stage11>
  <maxWeakCount>9</maxWeakCount>
  <stageThreshold>-1.1735212802886963e+00</stageThreshold>
  <weakClassifiers>
    <_>
      <internalNodes>
        0 -1 110915 2.2480647265911102e-01</internalNodes>
      <leafValues>
        -6.3265305757522583e-01 1.</leafValues></_>
    <_>
      <internalNodes>
        0 -1 123845 3.8925150875002146e-04</internalNodes>
      <leafValues>
        -3.9038071036338806e-01 2.7426612377166748e-01</leafValues></_>
    <_>
      <internalNodes>
        0 -1 90064 -4.3369820341467857e-03</internalNodes>
      <leafValues>
        -7.5274962186813354e-01 1.5323711931705475e-01</leafValues></_>
    <_>
      <internalNodes>
        0 -1 153842 -9.6020009368658066e-04</internalNodes>
      <leafValues>
        4.0184777975082397e-01 -2.8875285387039185e-01</leafValues></_>
    <_>
      <internalNodes>
        0 -1 78684 -1.6570296138525009e-02</internalNodes>
      <leafValues>
        1.2120782583951950e-01 -9.3164068460464478e-01</leafValues></_>
    <_>
      <internalNodes>
        0 -1 161645 1.3808142393827438e-03</internalNodes>
      <leafValues>
        9.6694253385066986e-02 -8.2005888223648071e-01</leafValues></_>
    <_>
      <internalNodes>
        0 -1 140180 -6.0875946655869484e-03</internalNodes>
      <leafValues>
        3.3128419518470764e-01 -3.2199543714523315e-01</leafValues></_>
    <_>
      <internalNodes>
        0 -1 161203 -3.0018803663551807e-03</internalNodes>
      <leafValues>
        -7.0810878276824951e-01 1.4465029537677765e-01</leafValues></_>
    <_>
      <internalNodes>
        0 -1 121896 4.6640058280900121e-04</internalNodes>
      <leafValues>
        1.3258349895477295e-01 -7.0008999109268188e-01</leafValues></_></weakClassifiers></stage11>
</opencv_storage>
