<?xml version="1.0"?>
<opencv_storage>
<stage14>
  <maxWeakCount>9</maxWeakCount>
  <stageThreshold>-1.4709038734436035e+00</stageThreshold>
  <weakClassifiers>
    <_>
      <internalNodes>
        0 -1 140703 -6.1994453426450491e-04</internalNodes>
      <leafValues>
        5.5555555969476700e-02 -7.1028035879135132e-01</leafValues></_>
    <_>
      <internalNodes>
        0 -1 104568 -8.7071796879172325e-03</internalNodes>
      <leafValues>
        4.9703201651573181e-01 -3.4519255161285400e-01</leafValues></_>
    <_>
      <internalNodes>
        0 -1 85278 -1.1509954929351807e-02</internalNodes>
      <leafValues>
        -3.0742380023002625e-01 4.4144889712333679e-01</leafValues></_>
    <_>
      <internalNodes>
        0 -1 154759 2.4670886341482401e-04</internalNodes>
      <leafValues>
        -2.5028583407402039e-01 4.7583171725273132e-01</leafValues></_>
    <_>
      <internalNodes>
        0 -1 92518 1.6788036737125367e-04</internalNodes>
      <leafValues>
        -2.8018540143966675e-01 4.4824063777923584e-01</leafValues></_>
    <_>
      <internalNodes>
        0 -1 109834 5.8082817122340202e-03</internalNodes>
      <leafValues>
        -3.8359895348548889e-01 3.3739924430847168e-01</leafValues></_>
    <_>
      <internalNodes>
        0 -1 69561 -6.4603891223669052e-04</internalNodes>
      <leafValues>
        6.2547910213470459e-01 -1.5596394240856171e-01</leafValues></_>
    <_>
      <internalNodes>
        0 -1 112969 1.9583594985306263e-03</internalNodes>
      <leafValues>
        -3.7366598844528198e-01 3.6008417606353760e-01</leafValues></_>
    <_>
      <internalNodes>
        0 -1 96285 4.6840943396091461e-03</internalNodes>
      <leafValues>
        -1.5626050531864166e-01 7.0875769853591919e-01</leafValues></_></weakClassifiers></stage14>
</opencv_storage>
