<?xml version="1.0"?>
<opencv_storage>
<stage7>
  <maxWeakCount>7</maxWeakCount>
  <stageThreshold>-1.3345679044723511e+00</stageThreshold>
  <weakClassifiers>
    <_>
      <internalNodes>
        0 -1 59343 -3.1362924724817276e-02</internalNodes>
      <leafValues>
        2.0000000298023224e-01 -6.8888890743255615e-01</leafValues></_>
    <_>
      <internalNodes>
        0 -1 14420 1.1030726600438356e-03</internalNodes>
      <leafValues>
        2.2901661694049835e-02 -1.</leafValues></_>
    <_>
      <internalNodes>
        0 -1 12236 9.1823167167603970e-04</internalNodes>
      <leafValues>
        1.2718293070793152e-01 -7.9021406173706055e-01</leafValues></_>
    <_>
      <internalNodes>
        0 -1 160464 -1.8348749727010727e-03</internalNodes>
      <leafValues>
        -8.2717639207839966e-01 1.6228544712066650e-01</leafValues></_>
    <_>
      <internalNodes>
        0 -1 86221 -2.7573857456445694e-02</internalNodes>
      <leafValues>
        4.8259040713310242e-01 -3.4439507126808167e-01</leafValues></_>
    <_>
      <internalNodes>
        0 -1 36610 -5.0236308015882969e-04</internalNodes>
      <leafValues>
        -7.3215097188949585e-01 2.2702439129352570e-01</leafValues></_>
    <_>
      <internalNodes>
        0 -1 21562 1.0086377151310444e-03</internalNodes>
      <leafValues>
        1.7231605947017670e-01 -8.4067833423614502e-01</leafValues></_></weakClassifiers></stage7>
</opencv_storage>
