<?xml version="1.0"?>
<opencv_storage>
<stage16>
  <maxWeakCount>10</maxWeakCount>
  <stageThreshold>-1.1797902584075928e+00</stageThreshold>
  <weakClassifiers>
    <_>
      <internalNodes>
        0 -1 42264 -5.7299616746604443e-03</internalNodes>
      <leafValues>
        8.1818181276321411e-01 -6.3190186023712158e-01</leafValues></_>
    <_>
      <internalNodes>
        0 -1 68284 6.0185091570019722e-03</internalNodes>
      <leafValues>
        -8.8804056867957115e-03 -8.4834748506546021e-01</leafValues></_>
    <_>
      <internalNodes>
        0 -1 109135 2.1240632049739361e-03</internalNodes>
      <leafValues>
        8.7205208837985992e-02 -8.0325043201446533e-01</leafValues></_>
    <_>
      <internalNodes>
        0 -1 82421 -1.3374653644859791e-03</internalNodes>
      <leafValues>
        5.0514245033264160e-01 -1.6503755748271942e-01</leafValues></_>
    <_>
      <internalNodes>
        0 -1 75606 6.5260818228125572e-03</internalNodes>
      <leafValues>
        1.0415852814912796e-01 -8.5981822013854980e-01</leafValues></_>
    <_>
      <internalNodes>
        0 -1 71062 4.3377101421356201e-02</internalNodes>
      <leafValues>
        -2.8217193484306335e-01 4.7237220406532288e-01</leafValues></_>
    <_>
      <internalNodes>
        0 -1 26390 -1.9448566436767578e-01</internalNodes>
      <leafValues>
        1.3149291276931763e-01 -7.9544019699096680e-01</leafValues></_>
    <_>
      <internalNodes>
        0 -1 100025 -8.3906395593658090e-04</internalNodes>
      <leafValues>
        -4.1205838322639465e-01 2.2048617899417877e-01</leafValues></_>
    <_>
      <internalNodes>
        0 -1 120902 -1.9326738547533751e-03</internalNodes>
      <leafValues>
        7.9136919975280762e-01 -1.3977128267288208e-01</leafValues></_>
    <_>
      <internalNodes>
        0 -1 118253 -2.0728353410959244e-03</internalNodes>
      <leafValues>
        -8.2638293504714966e-01 1.3717453181743622e-01</leafValues></_></weakClassifiers></stage16>
</opencv_storage>
